{"learner":{"attributes":{"scikit_learn":"{\"_estimator_type\": \"classifier\"}"},"feature_names":["Age","Sex","ChestPainType","RestingBP","Cholesterol","FastingBS","RestingECG","MaxHR","ExerciseAngina","Oldpeak","ST_Slope"],"feature_types":["int","int","int","int","int","int","int","int","int","float","int"],"gradient_booster":{"model":{"gbtree_model_param":{"num_parallel_tree":"1","num_trees":"100"},"iteration_indptr":[0,1,2,3,4,5,6,7,8,9,10,11,12,13,14,15,16,17,18,19,20,21,22,23,24,25,26,27,28,29,30,31,32,33,34,35,36,37,38,39,40,41,42,43,44,45,46,47,48,49,50,51,52,53,54,55,56,57,58,59,60,61,62,63,64,65,66,67,68,69,70,71,72,73,74,75,76,77,78,79,80,81,82,83,84,85,86,87,88,89,90,91,92,93,94,95,96,97,98,99,100],"tree_info":[0,0,0,0,0,0,0,0,0,0,0,0,0,0,0,0,0,0,0,0,0,0,0,0,0,0,0,0,0,0,0,0,0,0,0,0,0,0,0,0,0,0,0,0,0,0,0,0,0,0,0,0,0,0,0,0,0,0,0,0,0,0,0,0,0,0,0,0,0,0,0,0,0,0,0,0,0,0,0,0,0,0,0,0,0,0,0,0,0,0,0,0,0,0,0,0,0,0,0,0],"trees":[{"base_weights":[3.1383746E-4,1.0243597E0,-1.1733536E0,3.81933E-1,1.6500814E-1,-1.5246416E0,2.4202482E-1,-2.2667168E-1,1.5135548E-1,-1.8024226E-1,-5.763473E-2,-1.4526602E-2,7.8778386E-2,-5.3358036E-1,5.7867266E-2,-1.4790936E-2,-1.0208194E-1],"categories":[],"categories_nodes":[],"categories_segments":[],"categories_sizes":[],"default_left":[0,0,0,0,0,0,0,0,0,0,0,0,0,0,0,0,0],"id":0,"left_children":[1,3,5,7,-1,9,11,13,-1,-1,-1,-1,-1,15,-1,-1,-1],"loss_changes":[1.4038255E2,2.004206E1,2.742939E1,1.8546766E1,0E0,5.8585587E0,2.273558E0,4.790239E0,0E0,0E0,0E0,0E0,0E0,2.2153592E0,0E0,0E0,0E0],"parents":[2147483647,0,0,1,1,2,2,3,3,5,5,6,6,7,7,13,13],"right_children":[2,4,6,8,-1,10,12,14,-1,-1,-1,-1,-1,16,-1,-1,-1],"split_conditions":[1E0,1E0,1.2E0,1E0,1.6500814E-1,1E0,1E0,6E-1,1.5135548E-1,-1.8024226E-1,-5.763473E-2,-1.4526602E-2,7.8778386E-2,1.26E2,5.7867266E-2,-1.4790936E-2,-1.0208194E-1],"split_indices":[2,8,9,5,0,5,8,9,0,0,0,0,0,3,0,0,0],"split_type":[0,0,0,0,0,0,0,0,0,0,0,0,0,0,0,0,0],"sum_hessian":[1.1480153E2,6.1376575E1,5.3424953E1,2.8079163E1,3.3297413E1,4.2739964E1,1.0684991E1,1.8139635E1,9.939527E0,3.627927E1,6.460692E0,6.460692E0,4.2242985E0,1.3169872E1,4.9697633E0,7.4546447E0,5.7152276E0],"tree_param":{"num_deleted":"0","num_feature":"11","num_nodes":"17","size_leaf_vector":"1"}},{"base_weights":[1.8048881E-3,1.0818926E0,-1.307925E0,-8.965395E-2,1.2854431E0,6.686204E-2,-1.5894725E0,-7.0016325E-2,5.8282007E-2,5.9011303E-2,1.4797801E-1,-1.8496941E-1,-8.367803E-2],"categories":[],"categories_nodes":[],"categories_segments":[],"categories_sizes":[],"default_left":[0,0,0,0,0,0,0,0,0,0,0,0,0],"id":1,"left_children":[1,3,5,7,9,-1,11,-1,-1,-1,-1,-1,-1],"loss_changes":[1.6439485E2,1.5302872E1,2.9555214E1,4.05268E0,3.0285873E0,0E0,3.7237396E0,0E0,0E0,0E0,0E0,0E0,0E0],"parents":[2147483647,0,0,1,1,2,2,3,3,4,4,6,6],"right_children":[2,4,6,8,10,-1,12,-1,-1,-1,-1,-1,-1],"split_conditions":[1E0,1E0,1E2,1.31E2,0E0,6.686204E-2,2E0,-7.0016325E-2,5.8282007E-2,5.9011303E-2,1.4797801E-1,-1.8496941E-1,-8.367803E-2],"split_indices":[10,1,4,3,10,0,6,0,0,0,0,0,0],"split_type":[0,0,0,0,0,0,0,0,0,0,0,0,0],"sum_hessian":[1.1421076E2,6.2688084E1,5.152268E1,9.362311E0,5.332577E1,6.399896E0,4.5122784E1,4.937837E0,4.4244742E0,6.8742914E0,4.645148E1,3.7662613E1,7.4601727E0],"tree_param":{"num_deleted":"0","num_feature":"11","num_nodes":"13","size_leaf_vector":"1"}},{"base_weights":[-1.4105372E-3,9.8439926E-1,-1.1772826E0,-8.106806E-2,1.1739558E0,-1.5908201E-1,-3.7159286E-2,-6.349854E-2,5.3535074E-2,4.9845703E-2,1.3555402E-1,-4.748162E-2,4.545629E-2],"categories":[],"categories_nodes":[],"categories_segments":[],"categories_sizes":[],"default_left":[0,0,0,0,0,0,0,0,0,0,0,0,0],"id":2,"left_children":[1,3,5,7,9,-1,11,-1,-1,-1,-1,-1,-1],"loss_changes":[1.3287225E2,1.2688305E1,1.8218445E1,3.3679585E0,2.811882E0,0E0,2.4526968E0,0E0,0E0,0E0,0E0,0E0,0E0],"parents":[2147483647,0,0,1,1,2,2,3,3,4,4,6,6],"right_children":[2,4,6,8,10,-1,12,-1,-1,-1,-1,-1,-1],"split_conditions":[1E0,1E0,5E-1,1.31E2,0E0,-1.5908201E-1,1.3E0,-6.349854E-2,5.3535074E-2,4.9845703E-2,1.3555402E-1,-4.748162E-2,4.545629E-2],"split_indices":[10,1,9,3,10,0,9,0,0,0,0,0,0],"split_type":[0,0,0,0,0,0,0,0,0,0,0,0,0],"sum_hessian":[1.126257E2,6.1352642E1,5.1273064E1,9.353036E0,5.1999603E1,4.0168858E1,1.1104208E1,4.9620757E0,4.3909607E0,6.579477E0,4.5420128E1,5.928152E0,5.176056E0],"tree_param":{"num_deleted":"0","num_feature":"11","num_nodes":"13","size_leaf_vector":"1"}},{"base_weights":[2.781675E-3,8.5965735E-1,-9.541178E-1,-4.578975E-3,1.0073096E0,3.7724376E-2,-1.0997945E0,5.349733E-1,1.308914E-1,-1.4507705E-1,-4.0928182E-1,1.0550072E-1,6.2540746E-3,-7.178578E-2,5.7793325E-3],"categories":[],"categories_nodes":[],"categories_segments":[],"categories_sizes":[],"default_left":[0,0,0,0,0,0,0,0,0,0,0,0,0,0,0],"id":3,"left_children":[1,3,5,-1,7,-1,9,11,-1,-1,13,-1,-1,-1,-1],"loss_changes":[9.249117E1,7.9718895E0,1.0526054E1,0E0,4.511364E0,0E0,7.879837E0,3.7357817E0,0E0,0E0,1.7691E0,0E0,0E0,0E0,0E0],"parents":[2147483647,0,0,1,1,2,2,4,4,6,6,7,7,10,10],"right_children":[2,4,6,-1,8,-1,10,12,-1,-1,14,-1,-1,-1,-1],"split_conditions":[1E0,1E0,1E2,-4.578975E-3,5.2E1,3.7724376E-2,5.7E1,2.09E2,1.308914E-1,-1.4507705E-1,2.61E2,1.0550072E-1,6.2540746E-3,-7.178578E-2,5.7793325E-3],"split_indices":[2,1,4,0,0,0,0,4,0,0,4,0,0,0,0],"split_type":[0,0,0,0,0,0,0,0,0,0,0,0,0,0,0],"sum_hessian":[1.108015E2,5.8509533E1,5.2291965E1,8.32745E0,5.0182083E1,5.1054635E0,4.7186504E1,1.671947E1,3.3462612E1,3.381443E1,1.3372072E1,8.060008E0,8.659461E0,8.275399E0,5.0966725E0],"tree_param":{"num_deleted":"0","num_feature":"11","num_nodes":"15","size_leaf_vector":"1"}},{"base_weights":[3.466568E-3,-5.5255264E-1,1.0170016E0,-8.832985E-1,5.241216E-1,1.2324121E-1,1.2802132E-2,-1.0646397E0,-4.2302132E-1,8.09872E-2,-1.5754597E-2,-7.647575E-2,-1.3941996E-1,-7.1040124E-1,1.9686008E-2,5.0045257E-3,-1.2017121E-1],"categories":[],"categories_nodes":[],"categories_segments":[],"categories_sizes":[],"default_left":[0,0,0,0,0,0,0,0,0,0,0,0,0,0,0,0,0],"id":4,"left_children":[1,3,5,7,9,-1,-1,11,13,-1,-1,-1,-1,15,-1,-1,-1],"loss_changes":[6.24878E1,2.5962494E1,4.5369797E0,4.1529655E0,2.8206377E0,0E0,0E0,2.295578E0,3.1372406E0,0E0,0E0,0E0,0E0,3.7536001E0,0E0,0E0,0E0],"parents":[2147483647,0,0,1,1,2,2,3,3,4,4,7,7,8,8,13,13],"right_children":[2,4,6,8,10,-1,-1,12,14,-1,-1,-1,-1,16,-1,-1,-1],"split_conditions":[1E0,1E0,1.49E2,5.6E1,1.56E2,1.2324121E-1,1.2802132E-2,1.22E2,2E0,8.09872E-2,-1.5754597E-2,-7.647575E-2,-1.3941996E-1,1.25E2,1.9686008E-2,5.0045257E-3,-1.2017121E-1],"split_indices":[8,5,7,0,7,0,0,3,6,0,0,0,0,3,0,0,0],"split_type":[0,0,0,0,0,0,0,0,0,0,0,0,0,0,0,0,0],"sum_hessian":[1.0888627E2,7.060669E1,3.827958E1,5.415141E1,1.6455284E1,3.3108536E1,5.171042E0,3.7904613E1,1.6246798E1,1.21437025E1,4.311581E0,1.6842993E1,2.1061619E1,1.0908324E1,5.3384733E0,4.1470346E0,6.7612896E0],"tree_param":{"num_deleted":"0","num_feature":"11","num_nodes":"17","size_leaf_vector":"1"}},{"base_weights":[2.4844077E-3,8.434203E-1,-9.904957E-1,1.2210633E-1,1.8219317E-1,-1.5994063E-1,-1.4964083E-1,4.9930803E-2,-4.2498715E-2,-5.8841433E-2,2.849325E-2],"categories":[],"categories_nodes":[],"categories_segments":[],"categories_sizes":[],"default_left":[0,0,0,0,0,0,0,0,0,0,0],"id":5,"left_children":[1,3,5,-1,7,9,-1,-1,-1,-1,-1],"loss_changes":[9.078591E1,1.1297298E1,1.6560623E1,0E0,3.363515E0,3.0401788E0,0E0,0E0,0E0,0E0,0E0],"parents":[2147483647,0,0,1,1,2,2,4,4,5,5],"right_children":[2,4,6,-1,8,10,-1,-1,-1,-1,-1],"split_conditions":[1E0,1E0,1E0,1.2210633E-1,1.51E2,1E0,-1.4964083E-1,4.9930803E-2,-4.2498715E-2,-5.8841433E-2,2.849325E-2],"split_indices":[10,2,2,0,7,6,0,0,0,0,0],"split_type":[0,0,0,0,0,0,0,0,0,0,0],"sum_hessian":[1.0672095E2,5.7865974E1,4.8854973E1,3.9490788E1,1.8375187E1,1.6480387E1,3.2374588E1,1.2462772E1,5.9124155E0,8.461235E0,8.019152E0],"tree_param":{"num_deleted":"0","num_feature":"11","num_nodes":"11","size_leaf_vector":"1"}},{"base_weights":[1.8679061E-3,7.798081E-1,-9.142864E-1,-1.4537453E-2,9.5591676E-1,-1.2231675E-1,-3.1172391E-2,1.22533314E-1,2.5594935E-3],"categories":[],"categories_nodes":[],"categories_segments":[],"categories_sizes":[],"default_left":[0,0,0,0,0,0,0,0,0],"id":6,"left_children":[1,3,5,-1,7,-1,-1,-1,-1],"loss_changes":[7.530468E1,9.341019E0,6.525711E0,0E0,8.349018E0,0E0,0E0,0E0,0E0],"parents":[2147483647,0,0,1,1,2,2,4,4],"right_children":[2,4,6,-1,8,-1,-1,-1,-1],"split_conditions":[1E0,1E0,5.7E1,-1.4537453E-2,1.51E2,-1.2231675E-1,-3.1172391E-2,1.22533314E-1,2.5594935E-3],"split_indices":[10,1,0,0,7,0,0,0,0],"split_type":[0,0,0,0,0,0,0,0,0],"sum_hessian":[1.036588E2,5.6138424E1,4.752037E1,9.094624E0,4.70438E1,3.4242218E1,1.3278152E1,3.899188E1,8.051923E0],"tree_param":{"num_deleted":"0","num_feature":"11","num_nodes":"9","size_leaf_vector":"1"}},{"base_weights":[5.6195515E-3,7.227116E-1,-8.367162E-1,9.311516E-2,3.5793215E-2,6.966082E-2,-1.0795139E0,-4.6138067E-2,5.433454E-2,-1.2927543E-1,-4.4286337E-2],"categories":[],"categories_nodes":[],"categories_segments":[],"categories_sizes":[],"default_left":[0,0,0,0,0,0,0,0,0,0,0],"id":7,"left_children":[1,3,5,-1,7,-1,9,-1,-1,-1,-1],"loss_changes":[6.1896664E1,5.5141716E0,1.770956E1,0E0,2.575667E0,0E0,2.9443893E0,0E0,0E0,0E0,0E0],"parents":[2147483647,0,0,1,1,2,2,4,4,6,6],"right_children":[2,4,6,-1,8,-1,10,-1,-1,-1,-1],"split_conditions":[1E0,1.51E2,1E2,9.311516E-2,1.62E2,6.966082E-2,2E0,-4.6138067E-2,5.433454E-2,-1.2927543E-1,-4.4286337E-2],"split_indices":[10,7,4,0,7,0,6,0,0,0,0],"split_type":[0,0,0,0,0,0,0,0,0,0,0],"sum_hessian":[1.0047133E2,5.4346996E1,4.6124336E1,4.4610313E1,9.736684E0,6.2406073E0,3.9883728E1,4.937023E0,4.79966E0,3.2846573E1,7.0371547E0],"tree_param":{"num_deleted":"0","num_feature":"11","num_nodes":"11","size_leaf_vector":"1"}},{"base_weights":[1.2573245E-3,6.691434E-1,-7.330435E-1,2.7085727E-1,1.1024559E-1,-8.957277E-1,4.086601E-2,-1.2255591E-1,1.0725602E-1,-1.0960858E-1,-2.7969189E-2,-3.4197334E-2,3.8801808E-2],"categories":[],"categories_nodes":[],"categories_segments":[],"categories_sizes":[],"default_left":[0,0,0,0,0,0,0,0,0,0,0,0,0],"id":8,"left_children":[1,3,5,7,-1,9,-1,11,-1,-1,-1,-1,-1],"loss_changes":[4.8868153E1,7.1869507E0,8.944967E0,7.6149716E0,0E0,3.0881805E0,0E0,1.8141592E0,0E0,0E0,0E0,0E0,0E0],"parents":[2147483647,0,0,1,1,2,2,3,3,5,5,7,7],"right_children":[2,4,6,8,-1,10,-1,12,-1,-1,-1,-1,-1],"split_conditions":[1E0,1E0,1.7E0,1E0,1.1024559E-1,1E0,4.086601E-2,6E-1,1.0725602E-1,-1.0960858E-1,-2.7969189E-2,-3.4197334E-2,3.8801808E-2],"split_indices":[2,8,9,5,0,5,0,9,0,0,0,0,0],"split_type":[0,0,0,0,0,0,0,0,0,0,0,0,0],"sum_hessian":[9.764346E1,5.1180645E1,4.6462814E1,2.5102158E1,2.607849E1,4.0714413E1,5.7484045E0,1.6849052E1,8.253104E0,3.3432144E1,7.282268E0,1.2231526E1,4.6175265E0],"tree_param":{"num_deleted":"0","num_feature":"11","num_nodes":"13","size_leaf_vector":"1"}},{"base_weights":[2.8030926E-3,-3.9503255E-1,7.7072555E-1,8.300439E-1,-6.641461E-1,1.1580391E-1,5.3994678E-2,2.3302983E-2,1.2204394E-1,-9.148174E-2,-2.1910252E-1,3.2448854E-2,-6.064855E-1,-1.1071482E-1,-9.673264E-3],"categories":[],"categories_nodes":[],"categories_segments":[],"categories_sizes":[],"default_left":[0,0,0,0,0,0,0,0,0,0,0,0,0,0,0],"id":9,"left_children":[1,3,5,7,9,-1,-1,-1,-1,-1,11,-1,13,-1,-1],"loss_changes":[2.9601072E1,2.159515E1,2.188837E0,2.0085058E0,4.2660904E0,0E0,0E0,0E0,0E0,0E0,3.644418E0,0E0,2.1424298E0,0E0,0E0],"parents":[2147483647,0,0,1,1,2,2,3,3,4,4,10,10,12,12],"right_children":[2,4,6,8,10,-1,-1,-1,-1,-1,12,-1,14,-1,-1],"split_conditions":[1E0,1.29E2,2.15E2,1E0,2.61E2,1.1580391E-1,5.3994678E-2,2.3302983E-2,1.2204394E-1,-9.148174E-2,1.28E2,3.2448854E-2,5.6E1,-1.1071482E-1,-9.673264E-3],"split_indices":[8,4,4,5,4,0,0,0,0,0,3,0,0,0,0],"split_type":[0,0,0,0,0,0,0,0,0,0,0,0,0,0,0],"sum_hessian":[9.489508E1,6.283032E1,3.2064762E1,1.094075E1,5.188957E1,1.3442717E1,1.8622044E1,4.2337894E0,6.7069607E0,3.5767616E1,1.612195E1,6.9625163E0,9.159434E0,4.469074E0,4.6903605E0],"tree_param":{"num_deleted":"0","num_feature":"11","num_nodes":"15","size_leaf_vector":"1"}},{"base_weights":[6.942988E-3,6.0826504E-1,-6.4714473E-1,2.7004364E-1,9.2896837E-1,-5.2967523E-3,-8.095391E-1,1.1366851E-1,-1.24082826E-1,1.1698604E-1,4.230772E-2,-1.0500117E-1,-4.5186174E-1,-3.3815405E-1,4.0727627E-2,9.053469E-4,-7.90879E-2,6.3577127E-3,-7.24415E-2],"categories":[],"categories_nodes":[],"categories_segments":[],"categories_sizes":[],"default_left":[0,0,0,0,0,0,0,0,0,0,0,0,0,0,0,0,0,0,0],"id":10,"left_children":[1,3,5,7,9,-1,11,-1,13,-1,-1,-1,15,17,-1,-1,-1,-1,-1],"loss_changes":[3.712139E1,5.082285E0,4.3486786E0,8.02386E0,1.7219486E0,0E0,1.7139893E0,0E0,2.049186E0,0E0,0E0,0E0,1.7543015E0,1.7875624E0,0E0,0E0,0E0,0E0,0E0],"parents":[2147483647,0,0,1,1,2,2,3,3,4,4,6,6,8,8,12,12,13,13],"right_children":[2,4,6,8,10,-1,12,-1,14,-1,-1,-1,16,18,-1,-1,-1,-1,-1],"split_conditions":[1E0,1E0,1.29E2,1.29E2,2.71E2,-5.2967523E-3,2.54E2,1.1366851E-1,2E0,1.1698604E-1,4.230772E-2,-1.0500117E-1,1.51E2,1.28E2,4.0727627E-2,9.053469E-4,-7.90879E-2,6.3577127E-3,-7.24415E-2],"split_indices":[2,8,7,4,4,0,4,0,6,0,0,0,7,3,0,0,0,0,0],"split_type":[0,0,0,0,0,0,0,0,0,0,0,0,0,0,0,0,0,0,0],"sum_hessian":[9.237944E1,4.8167603E1,4.4211838E1,2.4340046E1,2.3827559E1,9.724045E0,3.448779E1,7.5372586E0,1.6802788E1,1.7477703E1,6.349855E0,2.2202917E1,1.2284874E1,1.2024386E1,4.778401E0,5.0781884E0,7.2066855E0,5.900931E0,6.123455E0],"tree_param":{"num_deleted":"0","num_feature":"11","num_nodes":"19","size_leaf_vector":"1"}},{"base_weights":[7.3072733E-3,5.6834984E-1,-5.944322E-1,3.3815604E-1,1.0894492E-1,-8.7331474E-2,-2.1541253E-2,-6.377795E-2,8.0121815E-2,-2.622057E-2,4.4344824E-2],"categories":[],"categories_nodes":[],"categories_segments":[],"categories_sizes":[],"default_left":[0,0,0,0,0,0,0,0,0,0,0],"id":11,"left_children":[1,3,5,7,-1,-1,-1,9,-1,-1,-1],"loss_changes":[3.1032434E1,4.5599213E0,3.6795626E0,5.461254E0,0E0,0E0,0E0,1.6140217E0,0E0,0E0,0E0],"parents":[2147483647,0,0,1,1,2,2,3,3,7,7],"right_children":[2,4,6,8,-1,-1,-1,10,-1,-1,-1],"split_conditions":[1E0,1E0,5.6E1,1E0,1.0894492E-1,-8.7331474E-2,-2.1541253E-2,2E0,8.0121815E-2,-2.622057E-2,4.4344824E-2],"split_indices":[2,5,0,8,0,0,0,6,0,0,0],"split_type":[0,0,0,0,0,0,0,0,0,0,0],"sum_hessian":[8.99196E1,4.656209E1,4.335751E1,3.1914219E1,1.4647873E1,2.7114914E1,1.6242594E1,1.6526117E1,1.5388101E1,1.2340385E1,4.1857314E0],"tree_param":{"num_deleted":"0","num_feature":"11","num_nodes":"11","size_leaf_vector":"1"}},{"base_weights":[5.9234025E-3,-2.954771E-1,7.1032935E-1,8.684337E-2,-5.371328E-1,4.8465383E-1,1.17168956E-1,-7.0763534E-1,1.4242913E-2,2.1252815E-2,9.2358865E-2,-9.437867E-2,-4.3128377E-1,-7.905127E-3,-8.248686E-2],"categories":[],"categories_nodes":[],"categories_segments":[],"categories_sizes":[],"default_left":[0,0,0,0,0,0,0,0,0,0,0,0,0,0,0],"id":12,"left_children":[1,3,5,-1,7,9,-1,11,-1,-1,-1,-1,13,-1,-1],"loss_changes":[1.9054192E1,1.7230894E1,1.7922516E0,0E0,6.0561647E0,1.8488412E0,0E0,1.6136723E0,0E0,0E0,0E0,0E0,2.1222472E0,0E0,0E0],"parents":[2147483647,0,0,1,1,2,2,4,4,5,5,7,7,12,12],"right_children":[2,4,6,-1,8,10,-1,12,-1,-1,-1,-1,14,-1,-1],"split_conditions":[1.3E0,1.29E2,2.1E0,8.684337E-2,1E0,6.1E1,1.17168956E-1,2.47E2,1.4242913E-2,2.1252815E-2,9.2358865E-2,-9.437867E-2,1.28E2,-7.905127E-3,-8.248686E-2],"split_indices":[9,4,9,0,8,0,0,4,0,0,0,0,3,0,0],"split_type":[0,0,0,0,0,0,0,0,0,0,0,0,0,0,0],"sum_hessian":[8.775916E1,6.186777E1,2.589139E1,1.0675711E1,5.1192062E1,1.771135E1,8.18004E0,4.076242E1,1.0429641E1,1.0930376E1,6.780973E0,2.3739677E1,1.7022745E1,8.86605E0,8.156695E0],"tree_param":{"num_deleted":"0","num_feature":"11","num_nodes":"15","size_leaf_vector":"1"}},{"base_weights":[5.225457E-3,5.154741E-1,-5.307357E-1,2.3151845E-1,8.066472E-1,-2.2296436E-4,-7.309241E-2,1.00187905E-1,-9.690249E-3,1.0575545E-1,2.890561E-2],"categories":[],"categories_nodes":[],"categories_segments":[],"categories_sizes":[],"default_left":[0,0,0,0,0,0,0,0,0,0,0],"id":13,"left_children":[1,3,5,7,9,-1,-1,-1,-1,-1,-1],"loss_changes":[2.3907684E1,3.515688E0,3.4039307E0,5.532546E0,1.8302374E0,0E0,0E0,0E0,0E0,0E0,0E0],"parents":[2147483647,0,0,1,1,2,2,3,3,4,4],"right_children":[2,4,6,8,10,-1,-1,-1,-1,-1,-1],"split_conditions":[1E0,1E0,1.29E2,1.29E2,2.71E2,-2.2296436E-4,-7.309241E-2,1.00187905E-1,-9.690249E-3,1.0575545E-1,2.890561E-2],"split_indices":[2,8,7,4,4,0,0,0,0,0,0],"split_type":[0,0,0,0,0,0,0,0,0,0,0],"sum_hessian":[8.542194E1,4.3780254E1,4.1641693E1,2.307366E1,2.0706594E1,9.479824E0,3.216187E1,6.6491957E0,1.6424465E1,1.4885178E1,5.821417E0],"tree_param":{"num_deleted":"0","num_feature":"11","num_nodes":"11","size_leaf_vector":"1"}},{"base_weights":[6.836105E-3,4.8102444E-1,-4.8505974E-1,2.6807347E-1,9.8296404E-2,-6.2191266E-1,4.757278E-3,-4.752423E-3,6.655908E-2,-7.4091643E-1,1.9370136E-3,-9.123516E-3,-9.131828E-2],"categories":[],"categories_nodes":[],"categories_segments":[],"categories_sizes":[],"default_left":[0,0,0,0,0,0,0,0,0,0,0,0,0],"id":14,"left_children":[1,3,5,7,-1,9,-1,-1,-1,11,-1,-1,-1],"loss_changes":[1.9891254E1,3.7838163E0,3.0608768E0,3.3975115E0,0E0,2.551981E0,0E0,0E0,0E0,1.9731865E0,0E0,0E0,0E0],"parents":[2147483647,0,0,1,1,2,2,3,3,5,5,9,9],"right_children":[2,4,6,8,-1,10,-1,-1,-1,12,-1,-1,-1],"split_conditions":[1E0,1E0,1E0,1E0,9.8296404E-2,1E0,4.757278E-3,-4.752423E-3,6.655908E-2,1.16E2,1.9370136E-3,-9.123516E-3,-9.131828E-2],"split_indices":[2,5,5,8,0,8,0,0,0,3,0,0,0],"split_type":[0,0,0,0,0,0,0,0,0,0,0,0,0],"sum_hessian":[8.327791E1,4.241341E1,4.0864494E1,2.9577827E1,1.2835586E1,3.2332294E1,8.532202E0,1.615034E1,1.3427487E1,2.7129814E1,5.2024784E0,4.1794605E0,2.2950354E1],"tree_param":{"num_deleted":"0","num_feature":"11","num_nodes":"13","size_leaf_vector":"1"}},{"base_weights":[9.2023555E-3,4.496106E-1,-4.4624904E-1,-3.7811127E-2,6.1889404E-1,-1.1038634E-1,-1.9316238E-1,3.6341194E-2,8.594E-2,-5.007219E-2,2.694958E-2],"categories":[],"categories_nodes":[],"categories_segments":[],"categories_sizes":[],"default_left":[0,0,0,0,0,0,0,0,0,0,0],"id":15,"left_children":[1,3,5,-1,7,-1,9,-1,-1,-1,-1],"loss_changes":[1.6696526E1,5.964468E0,5.8448133E0,0E0,1.533884E0,0E0,3.743291E0,0E0,0E0,0E0,0E0],"parents":[2147483647,0,0,1,1,2,2,4,4,6,6],"right_children":[2,4,6,-1,8,-1,10,-1,-1,-1,-1],"split_conditions":[1E0,1E0,1E0,-3.7811127E-2,5.4E1,-1.1038634E-1,5.7E1,3.6341194E-2,8.594E-2,-5.007219E-2,2.694958E-2],"split_indices":[2,1,1,0,0,0,0,0,0,0,0],"split_type":[0,0,0,0,0,0,0,0,0,0,0],"sum_hessian":[8.1239075E1,4.1308136E1,3.993094E1,7.0084696E0,3.4299667E1,1.1152794E1,2.8778145E1,1.467581E1,1.9623857E1,1.7775288E1,1.1002857E1],"tree_param":{"num_deleted":"0","num_feature":"11","num_nodes":"11","size_leaf_vector":"1"}},{"base_weights":[7.7999705E-3,4.1355783E-1,-4.115691E-1,2.7858686E-1,9.185177E-2,3.08772E-2,-5.114695E-1,7.111021E-2,7.758993E-2,-7.4147016E-1,-1.09935276E-1,-2.5775105E-2,2.935238E-1,-4.5663026E-1,-1.2204441E-1,-4.8783753E-2,3.8476788E-2,8.4261104E-2,2.0626085E-4,-9.315896E-2,5.1038075E-2],"categories":[],"categories_nodes":[],"categories_segments":[],"categories_sizes":[],"default_left":[0,0,0,0,0,0,0,0,0,0,0,0,0,0,0,0,0,0,0,0,0],"id":16,"left_children":[1,3,5,7,-1,-1,9,-1,11,13,15,-1,17,19,-1,-1,-1,-1,-1,-1,-1],"loss_changes":[1.3853047E1,2.236003E0,2.945899E0,2.5152357E0,0E0,0E0,3.1877766E0,0E0,1.6455007E0,2.005313E0,2.4393299E0,0E0,2.0246632E0,6.0567455E0,0E0,0E0,0E0,0E0,0E0,0E0,0E0],"parents":[2147483647,0,0,1,1,2,2,3,3,6,6,8,8,9,9,10,10,12,12,13,13],"right_children":[2,4,6,8,-1,-1,10,-1,12,14,16,-1,18,20,-1,-1,-1,-1,-1,-1,-1],"split_conditions":[1E0,1.41E2,1E2,1.76E2,9.185177E-2,3.08772E-2,5.6E1,7.111021E-2,5.2E1,5.1E1,2.53E2,-2.5775105E-2,5.8E1,4.7E1,-1.2204441E-1,-4.8783753E-2,3.8476788E-2,8.4261104E-2,2.0626085E-4,-9.315896E-2,5.1038075E-2],"split_indices":[2,3,4,4,0,0,0,0,0,0,4,0,0,0,0,0,0,0,0,0,0],"split_type":[0,0,0,0,0,0,0,0,0,0,0,0,0,0,0,0,0,0,0,0,0],"sum_hessian":[7.941052E1,4.036728E1,3.9043247E1,3.2192535E1,8.174742E0,4.6433663E0,3.439988E1,1.0257999E1,2.1934536E1,2.133341E1,1.306647E1,8.824624E0,1.3109912E1,1.3672597E1,7.660813E0,7.543289E0,5.5231805E0,4.245208E0,8.864704E0,9.528446E0,4.1441507E0],"tree_param":{"num_deleted":"0","num_feature":"11","num_nodes":"21","size_leaf_vector":"1"}},{"base_weights":[1.1549686E-2,-7.847614E-2,2.2905971E-1,5.8558825E-2,-1.455302E-1,-6.963863E-2,4.427315E-3],"categories":[],"categories_nodes":[],"categories_segments":[],"categories_sizes":[],"default_left":[0,0,0,0,0,0,0],"id":17,"left_children":[1,-1,3,-1,5,-1,-1],"loss_changes":[1.2839956E1,0E0,7.3722005E0,0E0,2.7514713E0,0E0,0E0],"parents":[2147483647,0,0,2,2,4,4],"right_children":[2,-1,4,-1,6,-1,-1],"split_conditions":[1E0,-7.847614E-2,1E0,5.8558825E-2,4.7E1,-6.963863E-2,4.427315E-3],"split_indices":[1,0,2,0,0,0,0],"split_type":[0,0,0,0,0,0,0],"sum_hessian":[7.7353096E1,1.6971157E1,6.038194E1,3.2448868E1,2.7933073E1,6.8838716E0,2.1049202E1],"tree_param":{"num_deleted":"0","num_feature":"11","num_nodes":"7","size_leaf_vector":"1"}},{"base_weights":[5.967842E-3,6.0643658E-2,-6.719367E-1,-2.3606549E-1,-1.0187611E-1,-5.3990755E-2,2.2423347E-2],"categories":[],"categories_nodes":[],"categories_segments":[],"categories_sizes":[],"default_left":[0,0,0,0,0,0,0],"id":18,"left_children":[1,-1,3,5,-1,-1,-1],"loss_changes":[2.9689678E1,0E0,4.069582E0,1.9068978E0,0E0,0E0,0E0],"parents":[2147483647,0,0,2,2,3,3],"right_children":[2,-1,4,6,-1,-1,-1],"split_conditions":[1E0,6.0643658E-2,1E0,5.4E1,-1.0187611E-1,-5.3990755E-2,2.2423347E-2],"split_indices":[10,0,2,0,0,0,0],"split_type":[0,0,0,0,0,0,0],"sum_hessian":[7.624649E1,4.18548E1,3.439169E1,1.4123599E1,2.026809E1,8.740163E0,5.383436E0],"tree_param":{"num_deleted":"0","num_feature":"11","num_nodes":"7","size_leaf_vector":"1"}},{"base_weights":[4.0566856E-3,-2.4604699E-1,5.9425753E-1,1.0429373E-2,-5.738626E-2,3.739252E-2,1.0962536E-1],"categories":[],"categories_nodes":[],"categories_segments":[],"categories_sizes":[],"default_left":[0,0,0,0,0,0,0],"id":19,"left_children":[1,3,5,-1,-1,-1,-1],"loss_changes":[1.1226644E1,5.358055E0,2.023057E0,0E0,0E0,0E0,0E0],"parents":[2147483647,0,0,1,1,2,2],"right_children":[2,4,6,-1,-1,-1,-1],"split_conditions":[1.3E0,1E0,2.1E0,1.0429373E-2,-5.738626E-2,3.739252E-2,1.0962536E-1],"split_indices":[9,2,9,0,0,0,0],"split_type":[0,0,0,0,0,0,0],"sum_hessian":[7.406485E1,5.243015E1,2.16347E1,2.4277126E1,2.815302E1,1.490632E1,6.728382E0],"tree_param":{"num_deleted":"0","num_feature":"11","num_nodes":"7","size_leaf_vector":"1"}},{"base_weights":[3.7270046E-3,5.107691E-1,-6.2134117E-1,1.2865286E-1,2.6042002E-1,-9.2185155E-2,1.39691755E-2,-2.5055435E-1,5.353137E-1,5.981163E-2,-8.441317E-2,8.145633E-2,1.4441897E-2],"categories":[],"categories_nodes":[],"categories_segments":[],"categories_sizes":[],"default_left":[0,0,0,0,0,0,0,0,0,0,0,0,0],"id":20,"left_children":[1,3,5,-1,7,-1,-1,9,11,-1,-1,-1,-1],"loss_changes":[2.3677366E1,6.8046236E0,6.111969E0,0E0,4.563263E0,0E0,0E0,5.5221324E0,1.7702107E0,0E0,0E0,0E0,0E0],"parents":[2147483647,0,0,1,1,2,2,4,4,7,7,8,8],"right_children":[2,4,6,-1,8,-1,-1,10,12,-1,-1,-1,-1],"split_conditions":[1E0,1E-1,5E-1,1.2865286E-1,1.1E0,-9.2185155E-2,1.39691755E-2,2.34E2,1E0,5.981163E-2,-8.441317E-2,8.145633E-2,1.4441897E-2],"split_indices":[10,9,9,0,9,0,0,4,2,0,0,0,0],"split_type":[0,0,0,0,0,0,0,0,0,0,0,0,0],"sum_hessian":[7.2705765E1,4.0243744E1,3.2462017E1,9.711476E0,3.053227E1,2.4532171E1,7.9298463E0,1.0711044E1,1.9821224E1,4.2585373E0,6.452507E0,1.2127924E1,7.6933017E0],"tree_param":{"num_deleted":"0","num_feature":"11","num_nodes":"13","size_leaf_vector":"1"}},{"base_weights":[6.623346E-3,4.7571167E-1,-5.765271E-1,-2.9654747E-2,6.6406393E-1,-8.643306E-2,1.2638961E-2,-1.5821442E-2,8.4083475E-2],"categories":[],"categories_nodes":[],"categories_segments":[],"categories_sizes":[],"default_left":[0,0,0,0,0,0,0,0,0],"id":21,"left_children":[1,3,5,-1,7,-1,-1,-1,-1],"loss_changes":[1.9887875E1,5.892083E0,5.2659464E0,0E0,3.2891302E0,0E0,0E0,0E0,0E0],"parents":[2147483647,0,0,1,1,2,2,4,4],"right_children":[2,4,6,-1,8,-1,-1,-1,-1],"split_conditions":[1E0,1E0,5E-1,-2.9654747E-2,0E0,-8.643306E-2,1.2638961E-2,-1.5821442E-2,8.4083475E-2],"split_indices":[10,1,9,0,10,0,0,0,0],"split_type":[0,0,0,0,0,0,0,0,0],"sum_hessian":[7.070054E1,3.928432E1,3.1416212E1,7.772066E0,3.1512257E1,2.3486135E1,7.930078E0,4.0371614E0,2.7475096E1],"tree_param":{"num_deleted":"0","num_feature":"11","num_nodes":"9","size_leaf_vector":"1"}},{"base_weights":[5.614133E-3,-1.9985218E-1,4.9204502E-1,1.0827567E-1,-5.037327E-2,8.916608E-2,-8.768425E-3,-1.905018E-1,5.630284E-2,-5.5310056E-2,2.548695E-2],"categories":[],"categories_nodes":[],"categories_segments":[],"categories_sizes":[],"default_left":[0,0,0,0,0,0,0,0,0,0,0],"id":22,"left_children":[1,3,5,7,-1,-1,-1,9,-1,-1,-1],"loss_changes":[7.0667157E0,4.1883755E0,4.160169E0,3.0943348E0,0E0,0E0,0E0,2.176379E0,0E0,0E0,0E0],"parents":[2147483647,0,0,1,1,2,2,3,3,7,7],"right_children":[2,4,6,8,-1,-1,-1,10,-1,-1,-1],"split_conditions":[1.3E0,1E0,1.41E2,1.44E2,-5.037327E-2,8.916608E-2,-8.768425E-3,1E0,5.630284E-2,-5.5310056E-2,2.548695E-2],"split_indices":[9,2,7,7,0,0,0,8,0,0,0],"split_type":[0,0,0,0,0,0,0,0,0,0,0],"sum_hessian":[6.872202E1,4.8728474E1,1.9993551E1,2.3038233E1,2.569024E1,1.2276803E1,7.716749E0,1.3736838E1,9.3013935E0,7.6890855E0,6.0477533E0],"tree_param":{"num_deleted":"0","num_feature":"11","num_nodes":"11","size_leaf_vector":"1"}},{"base_weights":[6.204049E-3,4.3248302E-1,-5.2770996E-1,1.1968731E-1,1.8561171E-1,3.4992967E-2,-6.9613653E-1,-1.0221049E-1,6.442808E-2,-9.199804E-2,-5.471843E-3,-3.9416883E-2,3.852829E-2],"categories":[],"categories_nodes":[],"categories_segments":[],"categories_sizes":[],"default_left":[0,0,0,0,0,0,0,0,0,0,0,0,0],"id":23,"left_children":[1,3,5,-1,7,-1,9,11,-1,-1,-1,-1,-1],"loss_changes":[1.5817368E1,6.3163304E0,4.6664543E0,0E0,3.5987573E0,0E0,2.6834545E0,2.3785315E0,0E0,0E0,0E0,0E0,0E0],"parents":[2147483647,0,0,1,1,2,2,4,4,6,6,7,7],"right_children":[2,4,6,-1,8,-1,10,12,-1,-1,-1,-1,-1],"split_conditions":[1E0,1E-1,1E2,1.1968731E-1,1.7E0,3.4992967E-2,2E0,1.36E2,6.442808E-2,-9.199804E-2,-5.471843E-3,-3.9416883E-2,3.852829E-2],"split_indices":[10,9,4,0,9,0,6,3,0,0,0,0,0],"split_type":[0,0,0,0,0,0,0,0,0,0,0,0,0],"sum_hessian":[6.74947E1,3.763597E1,2.9858725E1,9.047623E0,2.8588348E1,4.7636147E0,2.509511E1,1.7332174E1,1.1256174E1,1.9793806E1,5.3013043E0,1.1133026E1,6.199147E0],"tree_param":{"num_deleted":"0","num_feature":"11","num_nodes":"13","size_leaf_vector":"1"}},{"base_weights":[7.4540274E-3,-6.98225E-2,2.0457338E-1,-1.06014825E-1,6.0602393E-2,5.741865E-2,-3.062496E-1,-5.7620887E-2,5.0444733E-3],"categories":[],"categories_nodes":[],"categories_segments":[],"categories_sizes":[],"default_left":[0,0,0,0,0,0,0,0,0],"id":24,"left_children":[1,-1,3,5,-1,-1,7,-1,-1],"loss_changes":[8.7878895E0,0E0,5.892516E0,3.8661034E0,0E0,0E0,1.87146E0,0E0,0E0],"parents":[2147483647,0,0,2,2,3,3,6,6],"right_children":[2,-1,4,6,-1,-1,8,-1,-1],"split_conditions":[1E0,-6.98225E-2,8E-1,1.29E2,6.0602393E-2,5.741865E-2,2.47E2,-5.7620887E-2,5.0444733E-3],"split_indices":[1,0,9,4,0,0,4,0,0],"split_type":[0,0,0,0,0,0,0,0,0],"sum_hessian":[6.5649925E1,1.4589487E1,5.106044E1,2.7816122E1,2.324432E1,6.217774E0,2.1598349E1,1.273936E1,8.858988E0],"tree_param":{"num_deleted":"0","num_feature":"11","num_nodes":"9","size_leaf_vector":"1"}},{"base_weights":[5.614875E-3,3.9155436E-1,-4.863855E-1,1.1445184E-1,1.5095064E-1,-7.373586E-1,4.4233378E-2,-5.5502437E-2,3.7264293E-1,-1.1599414E-1,-2.7292583E-2,4.317498E-2,-4.0808905E-2,7.278851E-1,-5.3587654E-3,2.1709414E-2,1.0865222E-1],"categories":[],"categories_nodes":[],"categories_segments":[],"categories_sizes":[],"default_left":[0,0,0,0,0,0,0,0,0,0,0,0,0,0,0,0,0],"id":25,"left_children":[1,3,5,-1,7,9,11,-1,13,-1,-1,-1,-1,15,-1,-1,-1],"loss_changes":[1.2594375E1,5.8835125E0,3.916194E0,0E0,4.4284463E0,3.0278826E0,1.72339E0,0E0,3.3452933E0,0E0,0E0,0E0,0E0,1.601213E0,0E0,0E0,0E0],"parents":[2147483647,0,0,1,1,2,2,4,4,5,5,6,6,8,8,13,13],"right_children":[2,4,6,-1,8,10,12,-1,14,-1,-1,-1,-1,16,-1,-1,-1],"split_conditions":[1E0,1E-1,3E-1,1.1445184E-1,1E0,1.52E2,1.45E2,-5.5502437E-2,1.36E2,-1.1599414E-1,-2.7292583E-2,4.317498E-2,-4.0808905E-2,1.3E0,-5.3587654E-3,2.1709414E-2,1.0865222E-1],"split_indices":[10,9,9,0,1,7,7,0,7,0,0,0,0,9,0,0,0],"split_type":[0,0,0,0,0,0,0,0,0,0,0,0,0,0,0,0,0],"sum_hessian":[6.432428E1,3.616195E1,2.8162333E1,8.589729E0,2.757222E1,1.8854755E1,9.307577E0,6.5327525E0,2.1039467E1,1.0277324E1,8.577431E0,5.0765114E0,4.231066E0,1.1038629E1,1.0000839E1,4.4893827E0,6.5492463E0],"tree_param":{"num_deleted":"0","num_feature":"11","num_nodes":"17","size_leaf_vector":"1"}},{"base_weights":[2.8796745E-3,-5.8711666E-1,1.8068317E-1,-1.1195047E-1,-3.3914268E-2,-9.168735E-2,5.0006515E-1,5.2632913E-2,-2.7161202E-1,1.0150459E-1,-2.094285E-3,-6.7638196E-2,-5.720411E-3,3.2285355E-2,-4.5052905E-2],"categories":[],"categories_nodes":[],"categories_segments":[],"categories_sizes":[],"default_left":[0,0,0,0,0,0,0,0,0,0,0,0,0,0,0],"id":26,"left_children":[1,3,5,-1,-1,7,9,-1,11,-1,13,-1,-1,-1,-1],"loss_changes":[6.763959E0,1.5180163E0,4.3548303E0,0E0,0E0,3.0245693E0,5.1516495E0,0E0,1.6693212E0,0E0,1.6234722E0,0E0,0E0,0E0,0E0],"parents":[2147483647,0,0,1,1,2,2,5,5,6,6,8,8,10,10],"right_children":[2,4,6,-1,-1,8,10,-1,12,-1,14,-1,-1,-1,-1],"split_conditions":[1E0,1.3E2,8E-1,-1.1195047E-1,-3.3914268E-2,1.29E2,1.33E2,5.2632913E-2,1.4E2,1.0150459E-1,1E0,-6.7638196E-2,-5.720411E-3,3.2285355E-2,-4.5052905E-2],"split_indices":[1,7,9,0,0,4,7,0,7,0,8,0,0,0,0],"split_type":[0,0,0,0,0,0,0,0,0,0,0,0,0,0,0],"sum_hessian":[6.2466732E1,1.3932655E1,4.8534077E1,4.1200433E0,9.812612E0,2.65797E1,2.1954378E1,5.863516E0,2.0716185E1,1.1149483E1,1.0804895E1,7.113864E0,1.360232E1,6.4251385E0,4.3797565E0],"tree_param":{"num_deleted":"0","num_feature":"11","num_nodes":"15","size_leaf_vector":"1"}},{"base_weights":[6.533942E-3,3.6321333E-1,-4.5186475E-1,1.0911705E-1,1.3192636E-1,-6.9982976E-2,1.0344638E-2,-4.3428686E-2,3.2004875E-1,-6.989653E-3,5.8349833E-2],"categories":[],"categories_nodes":[],"categories_segments":[],"categories_sizes":[],"default_left":[0,0,0,0,0,0,0,0,0,0,0],"id":27,"left_children":[1,3,5,-1,7,-1,-1,-1,9,-1,-1],"loss_changes":[1.0417832E1,5.289673E0,3.1358228E0,0E0,2.9200325E0,0E0,0E0,0E0,1.8507338E0,0E0,0E0],"parents":[2147483647,0,0,1,1,2,2,4,4,8,8],"right_children":[2,4,6,-1,8,-1,-1,-1,10,-1,-1],"split_conditions":[1E0,1E-1,5E-1,1.0911705E-1,1E0,-6.9982976E-2,1.0344638E-2,-4.3428686E-2,1.1E0,-6.989653E-3,5.8349833E-2],"split_indices":[10,9,9,0,1,0,0,0,9,0,0],"split_type":[0,0,0,0,0,0,0,0,0,0,0],"sum_hessian":[6.171329E1,3.4824245E1,2.6889048E1,8.203876E0,2.6620369E1,1.953912E1,7.3499274E0,6.6068215E0,2.0013548E1,7.6240554E0,1.2389492E1],"tree_param":{"num_deleted":"0","num_feature":"11","num_nodes":"11","size_leaf_vector":"1"}},{"base_weights":[7.0529664E-3,2.7971917E-1,-2.7972105E-1,8.015564E-2,7.9343714E-2,-3.9627856E-1,3.3167604E-2,-6.952165E-3,5.9188526E-2,-5.7081148E-2,8.3675375E-3],"categories":[],"categories_nodes":[],"categories_segments":[],"categories_sizes":[],"default_left":[0,0,0,0,0,0,0,0,0,0,0],"id":28,"left_children":[1,3,5,7,-1,9,-1,-1,-1,-1,-1],"loss_changes":[4.864849E0,2.8696449E0,2.2055795E0,1.634486E0,0E0,1.7055688E0,0E0,0E0,0E0,0E0,0E0],"parents":[2147483647,0,0,1,1,2,2,3,3,5,5],"right_children":[2,4,6,8,-1,10,-1,-1,-1,-1,-1],"split_conditions":[1E0,1E0,2E0,2E0,7.9343714E-2,1E0,3.3167604E-2,-6.952165E-3,5.9188526E-2,-5.7081148E-2,8.3675375E-3],"split_indices":[2,5,9,6,0,5,0,0,0,0,0],"split_type":[0,0,0,0,0,0,0,0,0,0,0],"sum_hessian":[6.0214813E1,3.087926E1,2.9335556E1,2.236073E1,8.518529E0,2.4763319E1,4.572236E0,1.776506E1,4.5956697E0,1.9144825E1,5.618495E0],"tree_param":{"num_deleted":"0","num_feature":"11","num_nodes":"11","size_leaf_vector":"1"}},{"base_weights":[8.409879E-3,-8.1228934E-2,8.799099E-2,-2.437516E-1,4.2429797E-2,-1.4199567E-3,-5.0070796E-2],"categories":[],"categories_nodes":[],"categories_segments":[],"categories_sizes":[],"default_left":[0,0,0,0,0,0,0],"id":29,"left_children":[1,3,-1,5,-1,-1,-1],"loss_changes":[4.457154E0,4.376714E0,0E0,2.145345E0,0E0,0E0,0E0],"parents":[2147483647,0,0,1,1,3,3],"right_children":[2,4,-1,6,-1,-1,-1],"split_conditions":[2.1E0,1E0,8.799099E-2,1E0,4.2429797E-2,-1.4199567E-3,-5.0070796E-2],"split_indices":[9,5,0,2,0,0,0],"split_type":[0,0,0,0,0,0,0],"sum_hessian":[5.9293148E1,5.421128E1,5.0818677E0,4.0799427E1,1.3411852E1,2.0597147E1,2.020228E1],"tree_param":{"num_deleted":"0","num_feature":"11","num_nodes":"7","size_leaf_vector":"1"}},{"base_weights":[9.012144E-3,3.3171198E-1,-4.1231355E-1,-1.32820625E-2,4.6481284E-1,2.7528917E-2,-5.972017E-2,7.002045E-2,-1.1424875E-2],"categories":[],"categories_nodes":[],"categories_segments":[],"categories_sizes":[],"default_left":[0,0,0,0,0,0,0,0,0],"id":30,"left_children":[1,3,5,-1,7,-1,-1,-1,-1],"loss_changes":[8.224144E0,2.133828E0,2.684894E0,0E0,2.9435563E0,0E0,0E0,0E0,0E0],"parents":[2147483647,0,0,1,1,2,2,4,4],"right_children":[2,4,6,-1,8,-1,-1,-1,-1],"split_conditions":[1E0,1E0,1E2,-1.32820625E-2,1.51E2,2.7528917E-2,-5.972017E-2,7.002045E-2,-1.1424875E-2],"split_indices":[10,1,4,0,7,0,0,0,0],"split_type":[0,0,0,0,0,0,0,0,0],"sum_hessian":[5.8482727E1,3.323796E1,2.5244768E1,7.5304246E0,2.5707535E1,4.3523054E0,2.0892464E1,1.9227123E1,6.4804115E0],"tree_param":{"num_deleted":"0","num_feature":"11","num_nodes":"9","size_leaf_vector":"1"}},{"base_weights":[8.632638E-3,3.052029E-1,-3.7982708E-1,1.0343527E-1,7.667257E-2,-6.500079E-2,6.3727694E-3,-2.4570507E-1,3.1096734E-2,1.7790472E-2,-6.817615E-2],"categories":[],"categories_nodes":[],"categories_segments":[],"categories_sizes":[],"default_left":[0,0,0,0,0,0,0,0,0,0,0],"id":31,"left_children":[1,3,5,-1,7,-1,-1,9,-1,-1,-1],"loss_changes":[6.801513E0,4.9703436E0,2.5799725E0,0E0,1.855684E0,0E0,0E0,1.8521152E0,0E0,0E0,0E0],"parents":[2147483647,0,0,1,1,2,2,4,4,7,7],"right_children":[2,4,6,-1,8,-1,-1,10,-1,-1,-1],"split_conditions":[1E0,1E-1,3E-1,1.0343527E-1,1.1E0,-6.500079E-2,6.3727694E-3,1E0,3.1096734E-2,1.7790472E-2,-6.817615E-2],"split_indices":[10,9,9,0,9,0,0,6,0,0,0],"split_type":[0,0,0,0,0,0,0,0,0,0,0],"sum_hessian":[5.7031807E1,3.2462543E1,2.4569262E1,7.523846E0,2.4938698E1,1.5959901E1,8.609361E0,9.872599E0,1.5066099E1,5.0841484E0,4.7884502E0],"tree_param":{"num_deleted":"0","num_feature":"11","num_nodes":"11","size_leaf_vector":"1"}},{"base_weights":[1.1996063E-2,2.8017622E-1,-3.4386936E-1,-1.4548781E-2,4.0805992E-1,1.4489969E-2,-7.360077E-2,6.3693084E-2,-1.3417168E-2,-5.2140664E-2,5.3006098E-2],"categories":[],"categories_nodes":[],"categories_segments":[],"categories_sizes":[],"default_left":[0,0,0,0,0,0,0,0,0,0,0],"id":32,"left_children":[1,3,5,-1,7,9,-1,-1,-1,-1,-1],"loss_changes":[5.5148373E0,1.8066509E0,3.0612824E0,0E0,2.5976305E0,3.3955674E0,0E0,0E0,0E0,0E0,0E0],"parents":[2147483647,0,0,1,1,2,2,4,4,5,5],"right_children":[2,4,6,-1,8,10,-1,-1,-1,-1,-1],"split_conditions":[1E0,1E0,1E0,-1.4548781E-2,1.51E2,1.44E2,-7.360077E-2,6.3693084E-2,-1.3417168E-2,-5.2140664E-2,5.3006098E-2],"split_indices":[10,1,2,0,7,7,0,0,0,0,0],"split_type":[0,0,0,0,0,0,0,0,0,0,0],"sum_hessian":[5.5776173E1,3.1927958E1,2.3848215E1,7.4944286E0,2.4433527E1,1.2125378E1,1.1722837E1,1.8028402E1,6.405125E0,5.92691E0,6.1984677E0],"tree_param":{"num_deleted":"0","num_feature":"11","num_nodes":"11","size_leaf_vector":"1"}},{"base_weights":[3.4144383E-3,2.2678496E-1,-2.3523754E-1,4.9899492E-2,7.111042E-2,-7.282219E-2,-1.044848E-1,-1.0419034E-2,5.5931464E-2,6.1042633E-2,-2.833397E-1,-7.860678E-2,-1.8504404E-3],"categories":[],"categories_nodes":[],"categories_segments":[],"categories_sizes":[],"default_left":[0,0,0,0,0,0,0,0,0,0,0,0,0],"id":33,"left_children":[1,3,5,7,-1,-1,9,-1,-1,-1,11,-1,-1],"loss_changes":[3.0140567E0,2.2213871E0,1.516501E0,1.5677232E0,0E0,0E0,2.849609E0,0E0,0E0,0E0,2.1772594E0,0E0,0E0],"parents":[2147483647,0,0,1,1,2,2,3,3,6,6,10,10],"right_children":[2,4,6,8,-1,-1,10,-1,-1,-1,12,-1,-1],"split_conditions":[1E0,1E0,4.5E1,2E0,7.111042E-2,-7.282219E-2,5.1E1,-1.0419034E-2,5.5931464E-2,6.1042633E-2,5.6E1,-7.860678E-2,-1.8504404E-3],"split_indices":[2,5,0,6,0,0,0,0,0,0,0,0,0],"split_type":[0,0,0,0,0,0,0,0,0,0,0,0,0],"sum_hessian":[5.4539852E1,2.8197567E1,2.6342283E1,2.0859383E1,7.3381844E0,5.0380006E0,2.1304283E1,1.6507359E1,4.352024E0,4.010413E0,1.729387E1,5.774484E0,1.1519386E1],"tree_param":{"num_deleted":"0","num_feature":"11","num_nodes":"13","size_leaf_vector":"1"}},{"base_weights":[6.949407E-3,2.557528E-1,-3.233176E-1,9.656016E-2,3.9788026E-2,-5.9558082E-2,1.2336686E-2,-2.4725413E-1,4.9820483E-2,3.2708875E-3,-6.556426E-2],"categories":[],"categories_nodes":[],"categories_segments":[],"categories_sizes":[],"default_left":[0,0,0,0,0,0,0,0,0,0,0],"id":34,"left_children":[1,3,5,-1,7,-1,-1,9,-1,-1,-1],"loss_changes":[4.6097784E0,4.41856E0,2.5188563E0,0E0,3.1647215E0,0E0,0E0,1.5948822E0,0E0,0E0,0E0],"parents":[2147483647,0,0,1,1,2,2,4,4,7,7],"right_children":[2,4,6,-1,8,-1,-1,10,-1,-1,-1],"split_conditions":[1E0,1E-1,5.7E1,9.656016E-2,1.36E2,-5.9558082E-2,1.2336686E-2,1.29E2,4.9820483E-2,3.2708875E-3,-6.556426E-2],"split_indices":[10,9,0,0,3,0,0,3,0,0,0],"split_type":[0,0,0,0,0,0,0,0,0,0,0],"sum_hessian":[5.4093147E1,3.0980165E1,2.3112984E1,6.9761786E0,2.4003986E1,1.4934418E1,8.178566E0,1.4575998E1,9.427988E0,8.790348E0,5.7856503E0],"tree_param":{"num_deleted":"0","num_feature":"11","num_nodes":"11","size_leaf_vector":"1"}},{"base_weights":[7.197773E-3,2.1889858E-1,-2.2074106E-1,6.4063314E-3,6.738569E-2,-4.3634072E-1,2.10502E-2,1.0449333E-2,-6.640745E-2],"categories":[],"categories_nodes":[],"categories_segments":[],"categories_sizes":[],"default_left":[0,0,0,0,0,0,0,0,0],"id":35,"left_children":[1,3,5,-1,-1,7,-1,-1,-1],"loss_changes":[2.6661077E0,1.8288735E0,2.479555E0,0E0,0E0,1.8059936E0,0E0,0E0,0E0],"parents":[2147483647,0,0,1,1,2,2,5,5],"right_children":[2,4,6,-1,-1,8,-1,-1,-1],"split_conditions":[1E0,1E0,2.54E2,6.4063314E-3,6.738569E-2,1.29E2,2.10502E-2,1.0449333E-2,-6.640745E-2],"split_indices":[2,5,4,0,0,7,0,0,0],"split_type":[0,0,0,0,0,0,0,0,0],"sum_hessian":[5.324923E1,2.7628553E1,2.5620676E1,2.0723917E1,6.904636E0,1.6859646E1,8.761029E0,4.4254208E0,1.2434225E1],"tree_param":{"num_deleted":"0","num_feature":"11","num_nodes":"9","size_leaf_vector":"1"}},{"base_weights":[7.2424095E-3,-5.0688665E-2,1.580409E-1,4.0903544E-1,5.95178E-3,1.25452E-3,7.865123E-2,-2.1972583E-1,4.05609E-2,-8.498216E-2,9.0021744E-2,3.921023E-2,-3.5537977E-2],"categories":[],"categories_nodes":[],"categories_segments":[],"categories_sizes":[],"default_left":[0,0,0,0,0,0,0,0,0,0,0,0,0],"id":36,"left_children":[1,-1,3,5,7,-1,-1,9,-1,-1,11,-1,-1],"loss_changes":[3.9641266E0,0E0,1.5868641E0,2.0156438E0,2.347153E0,0E0,0E0,3.160665E0,0E0,0E0,1.5387802E0,0E0,0E0],"parents":[2147483647,0,0,2,2,3,3,4,4,7,7,10,10],"right_children":[2,-1,4,6,8,-1,-1,10,-1,-1,12,-1,-1],"split_conditions":[1E0,-5.0688665E-2,1.31E2,1E0,2.48E2,1.25452E-3,7.865123E-2,1.44E2,4.05609E-2,-8.498216E-2,2.21E2,3.921023E-2,-3.5537977E-2],"split_indices":[1,0,7,8,4,0,0,7,0,0,4,0,0],"split_type":[0,0,0,0,0,0,0,0,0,0,0,0,0],"sum_hessian":[5.2726692E1,1.2093178E1,4.0633514E1,1.4694144E1,2.5939371E1,7.072869E0,7.6212754E0,1.6406647E1,9.532724E0,5.2099605E0,1.1196686E1,6.848905E0,4.3477807E0],"tree_param":{"num_deleted":"0","num_feature":"11","num_nodes":"13","size_leaf_vector":"1"}},{"base_weights":[6.577792E-3,2.5503434E-2,-3.0024227E-1,3.6428114E-3,-6.593972E-2,-4.916007E-2,4.780199E-2],"categories":[],"categories_nodes":[],"categories_segments":[],"categories_sizes":[],"default_left":[0,0,0,0,0,0,0],"id":37,"left_children":[1,-1,3,5,-1,-1,-1],"loss_changes":[3.8458266E0,0E0,2.2316213E0,2.8313706E0,0E0,0E0,0E0],"parents":[2147483647,0,0,2,2,3,3],"right_children":[2,-1,4,6,-1,-1,-1],"split_conditions":[1E0,2.5503434E-2,1E0,1.44E2,-6.593972E-2,-4.916007E-2,4.780199E-2],"split_indices":[10,0,2,7,0,0,0],"split_type":[0,0,0,0,0,0,0],"sum_hessian":[5.2181442E1,2.987955E1,2.2301891E1,1.1851262E1,1.0450629E1,5.776868E0,6.0743937E0],"tree_param":{"num_deleted":"0","num_feature":"11","num_nodes":"7","size_leaf_vector":"1"}},{"base_weights":[4.9071535E-3,-8.034559E-2,8.246812E-2,-5.3645283E-2,6.287317E-2,2.7000574E-2,-1.6175637E-2],"categories":[],"categories_nodes":[],"categories_segments":[],"categories_sizes":[],"default_left":[0,0,0,0,0,0,0],"id":38,"left_children":[1,3,-1,-1,5,-1,-1],"loss_changes":[3.4796073E0,2.9246798E0,0E0,0E0,1.5227058E0,0E0,0E0],"parents":[2147483647,0,0,1,1,4,4],"right_children":[2,4,-1,-1,6,-1,-1],"split_conditions":[2.1E0,1E0,8.246812E-2,-5.3645283E-2,1E0,2.7000574E-2,-1.6175637E-2],"split_indices":[9,1,0,0,2,0,0],"split_type":[0,0,0,0,0,0,0],"sum_hessian":[5.145037E1,4.709268E1,4.3576884E0,1.1339816E1,3.5752865E1,1.8881407E1,1.687146E1],"tree_param":{"num_deleted":"0","num_feature":"11","num_nodes":"7","size_leaf_vector":"1"}},{"base_weights":[5.2995184E-3,2.183655E-1,-2.803761E-1,9.177423E-2,1.0612309E-2,-5.187805E-1,1.46940695E-2,-2.7015071E-2,4.448335E-2,-1.0049134E-1,2.0075857E-3],"categories":[],"categories_nodes":[],"categories_segments":[],"categories_sizes":[],"default_left":[0,0,0,0,0,0,0,0,0,0,0],"id":39,"left_children":[1,3,5,-1,7,9,-1,-1,-1,-1,-1],"loss_changes":[3.2205715E0,4.004224E0,2.321452E0,0E0,2.6381295E0,3.302803E0,0E0,0E0,0E0,0E0,0E0],"parents":[2147483647,0,0,1,1,2,2,4,4,5,5],"right_children":[2,4,6,-1,8,10,-1,-1,-1,-1,-1],"split_conditions":[1E0,1E-1,3E-1,9.177423E-2,1.36E2,1.52E2,1.46940695E-2,-2.7015071E-2,4.448335E-2,-1.0049134E-1,2.0075857E-3],"split_indices":[10,9,9,0,3,7,0,0,0,0,0],"split_type":[0,0,0,0,0,0,0,0,0,0,0],"sum_hessian":[5.0905098E1,2.9293036E1,2.1612062E1,6.4314113E0,2.2861624E1,1.3601404E1,8.010659E0,1.408818E1,8.773444E0,7.228326E0,6.373078E0],"tree_param":{"num_deleted":"0","num_feature":"11","num_nodes":"11","size_leaf_vector":"1"}},{"base_weights":[5.2727745E-3,-7.370258E-2,7.779978E-2,-2.1168437E-2,3.2289416E-2],"categories":[],"categories_nodes":[],"categories_segments":[],"categories_sizes":[],"default_left":[0,0,0,0,0],"id":40,"left_children":[1,3,-1,-1,-1],"loss_changes":[2.964746E0,2.240972E0,0E0,0E0,0E0],"parents":[2147483647,0,0,1,1],"right_children":[2,4,-1,-1,-1],"split_conditions":[2.1E0,1E0,7.779978E-2,-2.1168437E-2,3.2289416E-2],"split_indices":[9,5,0,0,0],"split_type":[0,0,0,0,0],"sum_hessian":[5.016759E1,4.602044E1,4.1471496E0,3.495497E1,1.106547E1],"tree_param":{"num_deleted":"0","num_feature":"11","num_nodes":"5","size_leaf_vector":"1"}},{"base_weights":[6.6458136E-3,-4.2768728E-2,1.4317017E-2],"categories":[],"categories_nodes":[],"categories_segments":[],"categories_sizes":[],"default_left":[0,0,0],"id":41,"left_children":[1,-1,-1],"loss_changes":[2.669274E0,0E0,0E0],"parents":[2147483647,0,0],"right_children":[2,-1,-1],"split_conditions":[1E0,-4.2768728E-2,1.4317017E-2],"split_indices":[1,0,0],"split_type":[0,0,0],"sum_hessian":[4.9825954E1,1.1363528E1,3.8462425E1],"tree_param":{"num_deleted":"0","num_feature":"11","num_nodes":"3","size_leaf_vector":"1"}},{"base_weights":[5.3609433E-3,2.0022799E-1,-2.5721288E-1,6.4492464E-2,2.2668425E-2,-5.2626595E-2,1.6966386E-2,6.2326137E-2,-1.9046286E-1,-5.1483493E-2,3.8255725E-2],"categories":[],"categories_nodes":[],"categories_segments":[],"categories_sizes":[],"default_left":[0,0,0,0,0,0,0,0,0,0,0],"id":42,"left_children":[1,3,5,-1,7,-1,-1,-1,9,-1,-1],"loss_changes":[2.642551E0,2.0978615E0,2.2145753E0,0E0,2.680509E0,0E0,0E0,0E0,2.7682962E0,0E0,0E0],"parents":[2147483647,0,0,1,1,2,2,4,4,8,8],"right_children":[2,4,6,-1,8,-1,-1,-1,10,-1,-1],"split_conditions":[1E0,5.1E1,5.7E1,6.4492464E-2,1.2E2,-5.2626595E-2,1.6966386E-2,6.2326137E-2,1E0,-5.1483493E-2,3.8255725E-2],"split_indices":[10,0,0,0,7,0,0,0,5,0,0],"split_type":[0,0,0,0,0,0,0,0,0,0,0],"sum_hessian":[4.9639095E1,2.8629433E1,2.1009663E1,8.048599E0,2.0580833E1,1.3330456E1,7.679208E0,5.2060184E0,1.5374815E1,1.013268E1,5.242135E0],"tree_param":{"num_deleted":"0","num_feature":"11","num_nodes":"11","size_leaf_vector":"1"}},{"base_weights":[6.5562543E-3,1.984858E-2,-2.3485471E-1,2.8185725E-2,-4.1493264E-1,-9.214395E-2,-1.730975E-2],"categories":[],"categories_nodes":[],"categories_segments":[],"categories_sizes":[],"default_left":[0,0,0,0,0,0,0],"id":43,"left_children":[1,-1,3,-1,5,-1,-1],"loss_changes":[2.199998E0,0E0,2.0550919E0,0E0,1.7014072E0,0E0,0E0],"parents":[2147483647,0,0,2,2,4,4],"right_children":[2,-1,4,-1,6,-1,-1],"split_conditions":[1E0,1.984858E-2,1.73E2,2.8185725E-2,2.23E2,-9.214395E-2,-1.730975E-2],"split_indices":[10,0,4,0,4,0,0],"split_type":[0,0,0,0,0,0,0],"sum_hessian":[4.90197E1,2.830991E1,2.0709791E1,5.3796034E0,1.5330188E1,4.698403E0,1.0631784E1],"tree_param":{"num_deleted":"0","num_feature":"11","num_nodes":"7","size_leaf_vector":"1"}},{"base_weights":[2.7917654E-3,1.6486955E-1,-2.179009E-1,8.4047176E-2,-3.0391566E-3,-4.7135394E-2,1.7557066E-2],"categories":[],"categories_nodes":[],"categories_segments":[],"categories_sizes":[],"default_left":[0,0,0,0,0,0,0],"id":44,"left_children":[1,3,5,-1,-1,-1,-1],"loss_changes":[1.8010755E0,3.4939187E0,1.877156E0,0E0,0E0,0E0,0E0],"parents":[2147483647,0,0,1,1,2,2],"right_children":[2,4,6,-1,-1,-1,-1],"split_conditions":[1E0,1E-1,5.7E1,8.4047176E-2,-3.0391566E-3,-4.7135394E-2,1.7557066E-2],"split_indices":[10,9,0,0,0,0,0],"split_type":[0,0,0,0,0,0,0],"sum_hessian":[4.834808E1,2.8021729E1,2.0326351E1,5.937914E0,2.2083815E1,1.2760065E1,7.566286E0],"tree_param":{"num_deleted":"0","num_feature":"11","num_nodes":"7","size_leaf_vector":"1"}},{"base_weights":[5.320296E-3,2.0495137E-2,-1.9721171E-1,-4.158424E-2,2.9343521E-2],"categories":[],"categories_nodes":[],"categories_segments":[],"categories_sizes":[],"default_left":[0,0,0,0,0],"id":45,"left_children":[1,-1,3,-1,-1],"loss_changes":[1.880036E0,0E0,2.2535105E0,0E0,0E0],"parents":[2147483647,0,0,2,2],"right_children":[2,-1,4,-1,-1],"split_conditions":[1E0,2.0495137E-2,2.61E2,-4.158424E-2,2.9343521E-2],"split_indices":[2,0,4,0,0],"split_type":[0,0,0,0,0],"sum_hessian":[4.7943867E1,2.5030449E1,2.291342E1,1.6435053E1,6.4783673E0],"tree_param":{"num_deleted":"0","num_feature":"11","num_nodes":"5","size_leaf_vector":"1"}},{"base_weights":[4.9140085E-3],"categories":[],"categories_nodes":[],"categories_segments":[],"categories_sizes":[],"default_left":[0],"id":46,"left_children":[-1],"loss_changes":[0E0],"parents":[2147483647],"right_children":[-1],"split_conditions":[5.2680867E-4],"split_indices":[0],"split_type":[0],"sum_hessian":[4.7723328E1],"tree_param":{"num_deleted":"0","num_feature":"11","num_nodes":"1","size_leaf_vector":"1"}},{"base_weights":[4.398156E-3,-3.981572E-2,1.3067817E-2],"categories":[],"categories_nodes":[],"categories_segments":[],"categories_sizes":[],"default_left":[0,0,0],"id":47,"left_children":[1,-1,-1],"loss_changes":[2.1965544E0,0E0,0E0],"parents":[2147483647,0,0],"right_children":[2,-1,-1],"split_conditions":[1E0,-3.981572E-2,1.3067817E-2],"split_indices":[1,0,0],"split_type":[0,0,0],"sum_hessian":[4.7721523E1,1.0852068E1,3.6869457E1],"tree_param":{"num_deleted":"0","num_feature":"11","num_nodes":"3","size_leaf_vector":"1"}},{"base_weights":[3.3626887E-3,-3.6191978E-2,1.1727928E-2],"categories":[],"categories_nodes":[],"categories_segments":[],"categories_sizes":[],"default_left":[0,0,0],"id":48,"left_children":[1,-1,-1],"loss_changes":[1.7925326E0,0E0,0E0],"parents":[2147483647,0,0],"right_children":[2,-1,-1],"split_conditions":[1E0,-3.6191978E-2,1.1727928E-2],"split_indices":[1,0,0],"split_type":[0,0,0],"sum_hessian":[4.7560226E1,1.0764065E1,3.679616E1],"tree_param":{"num_deleted":"0","num_feature":"11","num_nodes":"3","size_leaf_vector":"1"}},{"base_weights":[2.4839113E-3],"categories":[],"categories_nodes":[],"categories_segments":[],"categories_sizes":[],"default_left":[0],"id":49,"left_children":[-1],"loss_changes":[0E0],"parents":[2147483647],"right_children":[-1],"split_conditions":[2.6628893E-4],"split_indices":[0],"split_type":[0],"sum_hessian":[4.741479E1],"tree_param":{"num_deleted":"0","num_feature":"11","num_nodes":"1","size_leaf_vector":"1"}},{"base_weights":[2.2231585E-3,1.5875766E-1,-2.1129198E-1,7.982526E-2,-1.9548512E-3,5.1990896E-3,-5.584969E-2],"categories":[],"categories_nodes":[],"categories_segments":[],"categories_sizes":[],"default_left":[0,0,0,0,0,0,0],"id":50,"left_children":[1,3,5,-1,-1,-1,-1],"loss_changes":[1.6516572E0,2.9692872E0,1.7073159E0,0E0,0E0,0E0,0E0],"parents":[2147483647,0,0,1,1,2,2],"right_children":[2,4,6,-1,-1,-1,-1],"split_conditions":[1E0,1E-1,1E0,7.982526E-2,-1.9548512E-3,5.1990896E-3,-5.584969E-2],"split_indices":[10,9,2,0,0,0,0],"split_type":[0,0,0,0,0,0,0],"sum_hessian":[4.7413906E1,2.7505348E1,1.9908558E1,5.6376877E0,2.186766E1,1.1284809E1,8.623749E0],"tree_param":{"num_deleted":"0","num_feature":"11","num_nodes":"7","size_leaf_vector":"1"}},{"base_weights":[2.5723644E-3],"categories":[],"categories_nodes":[],"categories_segments":[],"categories_sizes":[],"default_left":[0],"id":51,"left_children":[-1],"loss_changes":[0E0],"parents":[2147483647],"right_children":[-1],"split_conditions":[2.7577157E-4],"split_indices":[0],"split_type":[0],"sum_hessian":[4.6872597E1],"tree_param":{"num_deleted":"0","num_feature":"11","num_nodes":"1","size_leaf_vector":"1"}},{"base_weights":[2.3024078E-3],"categories":[],"categories_nodes":[],"categories_segments":[],"categories_sizes":[],"default_left":[0],"id":52,"left_children":[-1],"loss_changes":[0E0],"parents":[2147483647],"right_children":[-1],"split_conditions":[2.4683075E-4],"split_indices":[0],"split_type":[0],"sum_hessian":[4.687163E1],"tree_param":{"num_deleted":"0","num_feature":"11","num_nodes":"1","size_leaf_vector":"1"}},{"base_weights":[2.0607575E-3],"categories":[],"categories_nodes":[],"categories_segments":[],"categories_sizes":[],"default_left":[0],"id":53,"left_children":[-1],"loss_changes":[0E0],"parents":[2147483647],"right_children":[-1],"split_conditions":[2.2092451E-4],"split_indices":[0],"split_type":[0],"sum_hessian":[4.6870766E1],"tree_param":{"num_deleted":"0","num_feature":"11","num_nodes":"1","size_leaf_vector":"1"}},{"base_weights":[1.8444814E-3],"categories":[],"categories_nodes":[],"categories_segments":[],"categories_sizes":[],"default_left":[0],"id":54,"left_children":[-1],"loss_changes":[0E0],"parents":[2147483647],"right_children":[-1],"split_conditions":[1.9773854E-4],"split_indices":[0],"split_type":[0],"sum_hessian":[4.686999E1],"tree_param":{"num_deleted":"0","num_feature":"11","num_nodes":"1","size_leaf_vector":"1"}},{"base_weights":[1.6509073E-3],"categories":[],"categories_nodes":[],"categories_segments":[],"categories_sizes":[],"default_left":[0],"id":55,"left_children":[-1],"loss_changes":[0E0],"parents":[2147483647],"right_children":[-1],"split_conditions":[1.7698633E-4],"split_indices":[0],"split_type":[0],"sum_hessian":[4.68693E1],"tree_param":{"num_deleted":"0","num_feature":"11","num_nodes":"1","size_leaf_vector":"1"}},{"base_weights":[1.4776478E-3],"categories":[],"categories_nodes":[],"categories_segments":[],"categories_sizes":[],"default_left":[0],"id":56,"left_children":[-1],"loss_changes":[0E0],"parents":[2147483647],"right_children":[-1],"split_conditions":[1.5841196E-4],"split_indices":[0],"split_type":[0],"sum_hessian":[4.686868E1],"tree_param":{"num_deleted":"0","num_feature":"11","num_nodes":"1","size_leaf_vector":"1"}},{"base_weights":[1.3225683E-3],"categories":[],"categories_nodes":[],"categories_segments":[],"categories_sizes":[],"default_left":[0],"id":57,"left_children":[-1],"loss_changes":[0E0],"parents":[2147483647],"right_children":[-1],"split_conditions":[1.4178657E-4],"split_indices":[0],"split_type":[0],"sum_hessian":[4.6868122E1],"tree_param":{"num_deleted":"0","num_feature":"11","num_nodes":"1","size_leaf_vector":"1"}},{"base_weights":[-6.0408544E-3,1.7535904E-2,-1.9436958E-1,-4.151838E-2,2.9306017E-2],"categories":[],"categories_nodes":[],"categories_segments":[],"categories_sizes":[],"default_left":[0,0,0,0,0],"id":58,"left_children":[1,-1,3,-1,-1],"loss_changes":[1.5536225E0,0E0,2.1840773E0,0E0,0E0],"parents":[2147483647,0,0,2,2],"right_children":[2,-1,4,-1,-1],"split_conditions":[1E0,1.7535904E-2,2.61E2,-4.151838E-2,2.9306017E-2],"split_indices":[2,0,4,0,0],"split_type":[0,0,0,0,0],"sum_hessian":[4.664182E1,2.4609407E1,2.2032413E1,1.5720677E1,6.311735E0],"tree_param":{"num_deleted":"0","num_feature":"11","num_nodes":"5","size_leaf_vector":"1"}},{"base_weights":[2.1116817E-3],"categories":[],"categories_nodes":[],"categories_segments":[],"categories_sizes":[],"default_left":[0],"id":59,"left_children":[-1],"loss_changes":[0E0],"parents":[2147483647],"right_children":[-1],"split_conditions":[2.2638387E-4],"split_indices":[0],"split_type":[0],"sum_hessian":[4.6683098E1],"tree_param":{"num_deleted":"0","num_feature":"11","num_nodes":"1","size_leaf_vector":"1"}},{"base_weights":[1.8900493E-3],"categories":[],"categories_nodes":[],"categories_segments":[],"categories_sizes":[],"default_left":[0],"id":60,"left_children":[-1],"loss_changes":[0E0],"parents":[2147483647],"right_children":[-1],"split_conditions":[2.0262366E-4],"split_indices":[0],"split_type":[0],"sum_hessian":[4.6682316E1],"tree_param":{"num_deleted":"0","num_feature":"11","num_nodes":"1","size_leaf_vector":"1"}},{"base_weights":[1.6917046E-3],"categories":[],"categories_nodes":[],"categories_segments":[],"categories_sizes":[],"default_left":[0],"id":61,"left_children":[-1],"loss_changes":[0E0],"parents":[2147483647],"right_children":[-1],"split_conditions":[1.8136002E-4],"split_indices":[0],"split_type":[0],"sum_hessian":[4.668162E1],"tree_param":{"num_deleted":"0","num_feature":"11","num_nodes":"1","size_leaf_vector":"1"}},{"base_weights":[1.5141357E-3],"categories":[],"categories_nodes":[],"categories_segments":[],"categories_sizes":[],"default_left":[0],"id":62,"left_children":[-1],"loss_changes":[0E0],"parents":[2147483647],"right_children":[-1],"split_conditions":[1.6232366E-4],"split_indices":[0],"split_type":[0],"sum_hessian":[4.6680996E1],"tree_param":{"num_deleted":"0","num_feature":"11","num_nodes":"1","size_leaf_vector":"1"}},{"base_weights":[1.9086956E-3],"categories":[],"categories_nodes":[],"categories_segments":[],"categories_sizes":[],"default_left":[0],"id":63,"left_children":[-1],"loss_changes":[0E0],"parents":[2147483647],"right_children":[-1],"split_conditions":[2.0462264E-4],"split_indices":[0],"split_type":[0],"sum_hessian":[4.665479E1],"tree_param":{"num_deleted":"0","num_feature":"11","num_nodes":"1","size_leaf_vector":"1"}},{"base_weights":[1.1549382E-3],"categories":[],"categories_nodes":[],"categories_segments":[],"categories_sizes":[],"default_left":[0],"id":64,"left_children":[-1],"loss_changes":[0E0],"parents":[2147483647],"right_children":[-1],"split_conditions":[1.2381571E-4],"split_indices":[0],"split_type":[0],"sum_hessian":[4.6679733E1],"tree_param":{"num_deleted":"0","num_feature":"11","num_nodes":"1","size_leaf_vector":"1"}},{"base_weights":[1.0337663E-3],"categories":[],"categories_nodes":[],"categories_segments":[],"categories_sizes":[],"default_left":[0],"id":65,"left_children":[-1],"loss_changes":[0E0],"parents":[2147483647],"right_children":[-1],"split_conditions":[1.1082542E-4],"split_indices":[0],"split_type":[0],"sum_hessian":[4.667931E1],"tree_param":{"num_deleted":"0","num_feature":"11","num_nodes":"1","size_leaf_vector":"1"}},{"base_weights":[9.2522625E-4],"categories":[],"categories_nodes":[],"categories_segments":[],"categories_sizes":[],"default_left":[0],"id":66,"left_children":[-1],"loss_changes":[0E0],"parents":[2147483647],"right_children":[-1],"split_conditions":[9.918933E-5],"split_indices":[0],"split_type":[0],"sum_hessian":[4.667893E1],"tree_param":{"num_deleted":"0","num_feature":"11","num_nodes":"1","size_leaf_vector":"1"}},{"base_weights":[1.9039158E-2,-1.0220439E-2,3.776145E-2],"categories":[],"categories_nodes":[],"categories_segments":[],"categories_sizes":[],"default_left":[0,0,0],"id":67,"left_children":[1,-1,-1],"loss_changes":[1.8461394E0,0E0,0E0],"parents":[2147483647,0,0],"right_children":[2,-1,-1],"split_conditions":[1E0,-1.0220439E-2,3.776145E-2],"split_indices":[5,0,0],"split_type":[0,0,0],"sum_hessian":[4.656259E1,3.5195194E1,1.1367397E1],"tree_param":{"num_deleted":"0","num_feature":"11","num_nodes":"3","size_leaf_vector":"1"}},{"base_weights":[-6.63211E-4],"categories":[],"categories_nodes":[],"categories_segments":[],"categories_sizes":[],"default_left":[0],"id":68,"left_children":[-1],"loss_changes":[0E0],"parents":[2147483647],"right_children":[-1],"split_conditions":[-7.109986E-5],"split_indices":[0],"split_type":[0],"sum_hessian":[4.6514767E1],"tree_param":{"num_deleted":"0","num_feature":"11","num_nodes":"1","size_leaf_vector":"1"}},{"base_weights":[-5.9362565E-4],"categories":[],"categories_nodes":[],"categories_segments":[],"categories_sizes":[],"default_left":[0],"id":69,"left_children":[-1],"loss_changes":[0E0],"parents":[2147483647],"right_children":[-1],"split_conditions":[-6.363993E-5],"split_indices":[0],"split_type":[0],"sum_hessian":[4.6515007E1],"tree_param":{"num_deleted":"0","num_feature":"11","num_nodes":"1","size_leaf_vector":"1"}},{"base_weights":[-5.313095E-4],"categories":[],"categories_nodes":[],"categories_segments":[],"categories_sizes":[],"default_left":[0],"id":70,"left_children":[-1],"loss_changes":[0E0],"parents":[2147483647],"right_children":[-1],"split_conditions":[-5.6959296E-5],"split_indices":[0],"split_type":[0],"sum_hessian":[4.6515224E1],"tree_param":{"num_deleted":"0","num_feature":"11","num_nodes":"1","size_leaf_vector":"1"}},{"base_weights":[-4.7552068E-4],"categories":[],"categories_nodes":[],"categories_segments":[],"categories_sizes":[],"default_left":[0],"id":71,"left_children":[-1],"loss_changes":[0E0],"parents":[2147483647],"right_children":[-1],"split_conditions":[-5.0978426E-5],"split_indices":[0],"split_type":[0],"sum_hessian":[4.651542E1],"tree_param":{"num_deleted":"0","num_feature":"11","num_nodes":"1","size_leaf_vector":"1"}},{"base_weights":[-4.255947E-4],"categories":[],"categories_nodes":[],"categories_segments":[],"categories_sizes":[],"default_left":[0],"id":72,"left_children":[-1],"loss_changes":[0E0],"parents":[2147483647],"right_children":[-1],"split_conditions":[-4.562609E-5],"split_indices":[0],"split_type":[0],"sum_hessian":[4.6515594E1],"tree_param":{"num_deleted":"0","num_feature":"11","num_nodes":"1","size_leaf_vector":"1"}},{"base_weights":[-3.809622E-4],"categories":[],"categories_nodes":[],"categories_segments":[],"categories_sizes":[],"default_left":[0],"id":73,"left_children":[-1],"loss_changes":[0E0],"parents":[2147483647],"right_children":[-1],"split_conditions":[-4.084124E-5],"split_indices":[0],"split_type":[0],"sum_hessian":[4.651575E1],"tree_param":{"num_deleted":"0","num_feature":"11","num_nodes":"1","size_leaf_vector":"1"}},{"base_weights":[-3.409535E-4],"categories":[],"categories_nodes":[],"categories_segments":[],"categories_sizes":[],"default_left":[0],"id":74,"left_children":[-1],"loss_changes":[0E0],"parents":[2147483647],"right_children":[-1],"split_conditions":[-3.6552086E-5],"split_indices":[0],"split_type":[0],"sum_hessian":[4.651589E1],"tree_param":{"num_deleted":"0","num_feature":"11","num_nodes":"1","size_leaf_vector":"1"}},{"base_weights":[-3.052148E-4],"categories":[],"categories_nodes":[],"categories_segments":[],"categories_sizes":[],"default_left":[0],"id":75,"left_children":[-1],"loss_changes":[0E0],"parents":[2147483647],"right_children":[-1],"split_conditions":[-3.27207E-5],"split_indices":[0],"split_type":[0],"sum_hessian":[4.6516014E1],"tree_param":{"num_deleted":"0","num_feature":"11","num_nodes":"1","size_leaf_vector":"1"}},{"base_weights":[-2.7321427E-4],"categories":[],"categories_nodes":[],"categories_segments":[],"categories_sizes":[],"default_left":[0],"id":76,"left_children":[-1],"loss_changes":[0E0],"parents":[2147483647],"right_children":[-1],"split_conditions":[-2.929007E-5],"split_indices":[0],"split_type":[0],"sum_hessian":[4.6516125E1],"tree_param":{"num_deleted":"0","num_feature":"11","num_nodes":"1","size_leaf_vector":"1"}},{"base_weights":[-2.4452334E-4],"categories":[],"categories_nodes":[],"categories_segments":[],"categories_sizes":[],"default_left":[0],"id":77,"left_children":[-1],"loss_changes":[0E0],"parents":[2147483647],"right_children":[-1],"split_conditions":[-2.6214244E-5],"split_indices":[0],"split_type":[0],"sum_hessian":[4.6516224E1],"tree_param":{"num_deleted":"0","num_feature":"11","num_nodes":"1","size_leaf_vector":"1"}},{"base_weights":[-2.1885622E-4],"categories":[],"categories_nodes":[],"categories_segments":[],"categories_sizes":[],"default_left":[0],"id":78,"left_children":[-1],"loss_changes":[0E0],"parents":[2147483647],"right_children":[-1],"split_conditions":[-2.3462588E-5],"split_indices":[0],"split_type":[0],"sum_hessian":[4.6516315E1],"tree_param":{"num_deleted":"0","num_feature":"11","num_nodes":"1","size_leaf_vector":"1"}},{"base_weights":[-1.9587831E-4],"categories":[],"categories_nodes":[],"categories_segments":[],"categories_sizes":[],"default_left":[0],"id":79,"left_children":[-1],"loss_changes":[0E0],"parents":[2147483647],"right_children":[-1],"split_conditions":[-2.099923E-5],"split_indices":[0],"split_type":[0],"sum_hessian":[4.6516396E1],"tree_param":{"num_deleted":"0","num_feature":"11","num_nodes":"1","size_leaf_vector":"1"}},{"base_weights":[-1.7534647E-4],"categories":[],"categories_nodes":[],"categories_segments":[],"categories_sizes":[],"default_left":[0],"id":80,"left_children":[-1],"loss_changes":[0E0],"parents":[2147483647],"right_children":[-1],"split_conditions":[-1.8798104E-5],"split_indices":[0],"split_type":[0],"sum_hessian":[4.6516464E1],"tree_param":{"num_deleted":"0","num_feature":"11","num_nodes":"1","size_leaf_vector":"1"}},{"base_weights":[-1.5693328E-4],"categories":[],"categories_nodes":[],"categories_segments":[],"categories_sizes":[],"default_left":[0],"id":81,"left_children":[-1],"loss_changes":[0E0],"parents":[2147483647],"right_children":[-1],"split_conditions":[-1.682411E-5],"split_indices":[0],"split_type":[0],"sum_hessian":[4.651653E1],"tree_param":{"num_deleted":"0","num_feature":"11","num_nodes":"1","size_leaf_vector":"1"}},{"base_weights":[-1.4045447E-4],"categories":[],"categories_nodes":[],"categories_segments":[],"categories_sizes":[],"default_left":[0],"id":82,"left_children":[-1],"loss_changes":[0E0],"parents":[2147483647],"right_children":[-1],"split_conditions":[-1.5057491E-5],"split_indices":[0],"split_type":[0],"sum_hessian":[4.6516586E1],"tree_param":{"num_deleted":"0","num_feature":"11","num_nodes":"1","size_leaf_vector":"1"}},{"base_weights":[-1.2571883E-4],"categories":[],"categories_nodes":[],"categories_segments":[],"categories_sizes":[],"default_left":[0],"id":83,"left_children":[-1],"loss_changes":[0E0],"parents":[2147483647],"right_children":[-1],"split_conditions":[-1.3477748E-5],"split_indices":[0],"split_type":[0],"sum_hessian":[4.651664E1],"tree_param":{"num_deleted":"0","num_feature":"11","num_nodes":"1","size_leaf_vector":"1"}},{"base_weights":[-1.12492526E-4],"categories":[],"categories_nodes":[],"categories_segments":[],"categories_sizes":[],"default_left":[0],"id":84,"left_children":[-1],"loss_changes":[0E0],"parents":[2147483647],"right_children":[-1],"split_conditions":[-1.2059816E-5],"split_indices":[0],"split_type":[0],"sum_hessian":[4.6516685E1],"tree_param":{"num_deleted":"0","num_feature":"11","num_nodes":"1","size_leaf_vector":"1"}},{"base_weights":[4.00408E-3,-3.364347E-2,1.1056309E-2],"categories":[],"categories_nodes":[],"categories_segments":[],"categories_sizes":[],"default_left":[0,0,0],"id":85,"left_children":[1,-1,-1],"loss_changes":[1.518909E0,0E0,0E0],"parents":[2147483647,0,0],"right_children":[2,-1,-1],"split_conditions":[1E0,-3.364347E-2,1.1056309E-2],"split_indices":[1,0,0],"split_type":[0,0,0],"sum_hessian":[4.618372E1,1.0464934E1,3.5718784E1],"tree_param":{"num_deleted":"0","num_feature":"11","num_nodes":"3","size_leaf_vector":"1"}},{"base_weights":[-1.1007875E-3],"categories":[],"categories_nodes":[],"categories_segments":[],"categories_sizes":[],"default_left":[0],"id":86,"left_children":[-1],"loss_changes":[0E0],"parents":[2147483647],"right_children":[-1],"split_conditions":[-1.1801047E-4],"split_indices":[0],"split_type":[0],"sum_hessian":[4.6385254E1],"tree_param":{"num_deleted":"0","num_feature":"11","num_nodes":"1","size_leaf_vector":"1"}},{"base_weights":[-6.077858E-4],"categories":[],"categories_nodes":[],"categories_segments":[],"categories_sizes":[],"default_left":[0],"id":87,"left_children":[-1],"loss_changes":[0E0],"parents":[2147483647],"right_children":[-1],"split_conditions":[-6.5157976E-5],"split_indices":[0],"split_type":[0],"sum_hessian":[4.6368076E1],"tree_param":{"num_deleted":"0","num_feature":"11","num_nodes":"1","size_leaf_vector":"1"}},{"base_weights":[-1.1961466E-4],"categories":[],"categories_nodes":[],"categories_segments":[],"categories_sizes":[],"default_left":[0],"id":88,"left_children":[-1],"loss_changes":[0E0],"parents":[2147483647],"right_children":[-1],"split_conditions":[-1.2823348E-5],"split_indices":[0],"split_type":[0],"sum_hessian":[4.625579E1],"tree_param":{"num_deleted":"0","num_feature":"11","num_nodes":"1","size_leaf_vector":"1"}},{"base_weights":[-9.088885E-4],"categories":[],"categories_nodes":[],"categories_segments":[],"categories_sizes":[],"default_left":[0],"id":89,"left_children":[-1],"loss_changes":[0E0],"parents":[2147483647],"right_children":[-1],"split_conditions":[-9.7437834E-5],"split_indices":[0],"split_type":[0],"sum_hessian":[4.6385918E1],"tree_param":{"num_deleted":"0","num_feature":"11","num_nodes":"1","size_leaf_vector":"1"}},{"base_weights":[-8.1348285E-4],"categories":[],"categories_nodes":[],"categories_segments":[],"categories_sizes":[],"default_left":[0],"id":90,"left_children":[-1],"loss_changes":[0E0],"parents":[2147483647],"right_children":[-1],"split_conditions":[-8.7209824E-5],"split_indices":[0],"split_type":[0],"sum_hessian":[4.6386246E1],"tree_param":{"num_deleted":"0","num_feature":"11","num_nodes":"1","size_leaf_vector":"1"}},{"base_weights":[-7.2807854E-4],"categories":[],"categories_nodes":[],"categories_segments":[],"categories_sizes":[],"default_left":[0],"id":91,"left_children":[-1],"loss_changes":[0E0],"parents":[2147483647],"right_children":[-1],"split_conditions":[-7.8054014E-5],"split_indices":[0],"split_type":[0],"sum_hessian":[4.638654E1],"tree_param":{"num_deleted":"0","num_feature":"11","num_nodes":"1","size_leaf_vector":"1"}},{"base_weights":[-6.51684E-4],"categories":[],"categories_nodes":[],"categories_segments":[],"categories_sizes":[],"default_left":[0],"id":92,"left_children":[-1],"loss_changes":[0E0],"parents":[2147483647],"right_children":[-1],"split_conditions":[-6.98641E-5],"split_indices":[0],"split_type":[0],"sum_hessian":[4.6386803E1],"tree_param":{"num_deleted":"0","num_feature":"11","num_nodes":"1","size_leaf_vector":"1"}},{"base_weights":[-5.8326754E-4],"categories":[],"categories_nodes":[],"categories_segments":[],"categories_sizes":[],"default_left":[0],"id":93,"left_children":[-1],"loss_changes":[0E0],"parents":[2147483647],"right_children":[-1],"split_conditions":[-6.252948E-5],"split_indices":[0],"split_type":[0],"sum_hessian":[4.638704E1],"tree_param":{"num_deleted":"0","num_feature":"11","num_nodes":"1","size_leaf_vector":"1"}},{"base_weights":[-5.220931E-4],"categories":[],"categories_nodes":[],"categories_segments":[],"categories_sizes":[],"default_left":[0],"id":94,"left_children":[-1],"loss_changes":[0E0],"parents":[2147483647],"right_children":[-1],"split_conditions":[-5.5971246E-5],"split_indices":[0],"split_type":[0],"sum_hessian":[4.638725E1],"tree_param":{"num_deleted":"0","num_feature":"11","num_nodes":"1","size_leaf_vector":"1"}},{"base_weights":[-1.3699768E-3],"categories":[],"categories_nodes":[],"categories_segments":[],"categories_sizes":[],"default_left":[0],"id":95,"left_children":[-1],"loss_changes":[0E0],"parents":[2147483647],"right_children":[-1],"split_conditions":[-1.4686903E-4],"split_indices":[0],"split_type":[0],"sum_hessian":[4.6346542E1],"tree_param":{"num_deleted":"0","num_feature":"11","num_nodes":"1","size_leaf_vector":"1"}},{"base_weights":[-3.2350974E-4],"categories":[],"categories_nodes":[],"categories_segments":[],"categories_sizes":[],"default_left":[0],"id":96,"left_children":[-1],"loss_changes":[0E0],"parents":[2147483647],"right_children":[-1],"split_conditions":[-3.468202E-5],"split_indices":[0],"split_type":[0],"sum_hessian":[4.6387936E1],"tree_param":{"num_deleted":"0","num_feature":"11","num_nodes":"1","size_leaf_vector":"1"}},{"base_weights":[-2.8956027E-4],"categories":[],"categories_nodes":[],"categories_segments":[],"categories_sizes":[],"default_left":[0],"id":97,"left_children":[-1],"loss_changes":[0E0],"parents":[2147483647],"right_children":[-1],"split_conditions":[-3.104245E-5],"split_indices":[0],"split_type":[0],"sum_hessian":[4.638805E1],"tree_param":{"num_deleted":"0","num_feature":"11","num_nodes":"1","size_leaf_vector":"1"}},{"base_weights":[-1.4894279E-2],"categories":[],"categories_nodes":[],"categories_segments":[],"categories_sizes":[],"default_left":[0],"id":98,"left_children":[-1],"loss_changes":[0E0],"parents":[2147483647],"right_children":[-1],"split_conditions":[-1.5967484E-3],"split_indices":[0],"split_type":[0],"sum_hessian":[4.617439E1],"tree_param":{"num_deleted":"0","num_feature":"11","num_nodes":"1","size_leaf_vector":"1"}},{"base_weights":[1.3037637E-3],"categories":[],"categories_nodes":[],"categories_segments":[],"categories_sizes":[],"default_left":[0],"id":99,"left_children":[-1],"loss_changes":[0E0],"parents":[2147483647],"right_children":[-1],"split_conditions":[1.3977062E-4],"split_indices":[0],"split_type":[0],"sum_hessian":[4.639355E1],"tree_param":{"num_deleted":"0","num_feature":"11","num_nodes":"1","size_leaf_vector":"1"}}]},"name":"gbtree"},"learner_model_param":{"base_score":"5.388824E-1","boost_from_average":"1","num_class":"0","num_feature":"11","num_target":"1"},"objective":{"name":"binary:logistic","reg_loss_param":{"scale_pos_weight":"1"}}},"version":[2,1,3]}